4.558688029646873474e-02
-5.734460800886154175e-02
4.627068713307380676e-02
-4.461573809385299683e-02
6.113951653242111206e-02
3.320025280117988586e-02
-3.549521416425704956e-02
6.473316252231597900e-02
3.925083205103874207e-02
5.787427350878715515e-02
-1.248624920845031738e-02
4.172163084149360657e-02
-9.909532964229583740e-02
1.591013222932815552e-01
-5.855714157223701477e-02
2.581157721579074860e-02
-4.897050559520721436e-02
3.565177693963050842e-02
-8.416349999606609344e-03
-8.567298948764801025e-02
-2.858445420861244202e-02
-4.057222604751586914e-02
-1.826504128985106945e-03
-3.863401478156447411e-03
-9.618982672691345215e-02
-6.614249665290117264e-03
-4.849653691053390503e-03
-6.223536096513271332e-03
1.116907037794589996e-02
-1.161869168281555176e-01
-8.017415180802345276e-03
-2.017927542328834534e-02
-6.504625827074050903e-02
-6.230650097131729126e-02
-3.318841010332107544e-02
6.532458961009979248e-02
-7.059374451637268066e-02
3.546497970819473267e-02
-4.219304770231246948e-02
-1.125595252960920334e-02
-6.278406828641891479e-02
-7.308787200599908829e-03
1.053761541843414307e-01
1.677767001092433929e-02
3.629442304372787476e-02
3.759675659239292145e-03
-1.218154327943921089e-03
-5.594523390755057335e-04
-4.947746172547340393e-02
-4.405900463461875916e-02
6.868263240903615952e-03
8.994140475988388062e-02
-8.345784246921539307e-02
1.476003527641296387e-01
9.143653512001037598e-02
-5.076121166348457336e-02
-2.122548408806324005e-02
-2.643819665536284447e-03
-7.648903131484985352e-02
1.756582036614418030e-02
-6.797170732170343399e-03
-4.243244975805282593e-02
3.651851788163185120e-02
4.075672850012779236e-02
